<?xml version="1.0"?>
<opencv_storage>
<stage8>
  <maxWeakCount>32</maxWeakCount>
  <stageThreshold>-8.7227177619934082e-01</stageThreshold>
  <weakClassifiers>
    <_>
      <internalNodes>
        0 -1 95335 9.3547683209180832e-03</internalNodes>
      <leafValues>
        6.3859164714813232e-02 6.1184448003768921e-01</leafValues></_>
    <_>
      <internalNodes>
        0 -1 167241 -3.5422863438725471e-03</internalNodes>
      <leafValues>
        5.1785719394683838e-01 -1.0969444364309311e-01</leafValues></_>
    <_>
      <internalNodes>
        0 -1 178392 5.3514335304498672e-03</internalNodes>
      <leafValues>
        -1.6074185073375702e-01 4.2236557602882385e-01</leafValues></_>
    <_>
      <internalNodes>
        0 -1 170317 5.7441024109721184e-03</internalNodes>
      <leafValues>
        -2.0192663371562958e-01 3.0908611416816711e-01</leafValues></_>
    <_>
      <internalNodes>
        0 -1 120310 -5.1504947245121002e-02</internalNodes>
      <leafValues>
        -7.0245230197906494e-01 7.0580765604972839e-02</leafValues></_>
    <_>
      <internalNodes>
        0 -1 46720 3.3128898590803146e-02</internalNodes>
      <leafValues>
        9.8431006073951721e-02 -4.4734081625938416e-01</leafValues></_>
    <_>
      <internalNodes>
        0 -1 163282 -4.3938183807767928e-04</internalNodes>
      <leafValues>
        -4.3169531226158142e-01 1.1130519956350327e-01</leafValues></_>
    <_>
      <internalNodes>
        0 -1 139984 1.1308008804917336e-02</internalNodes>
      <leafValues>
        -1.1907255649566650e-01 3.7404736876487732e-01</leafValues></_>
    <_>
      <internalNodes>
        0 -1 35356 7.4131637811660767e-03</internalNodes>
      <leafValues>
        -1.6016937792301178e-01 2.6279249787330627e-01</leafValues></_>
    <_>
      <internalNodes>
        0 -1 144056 -5.8631150750443339e-04</internalNodes>
      <leafValues>
        -5.0244230031967163e-01 8.0856584012508392e-02</leafValues></_>
    <_>
      <internalNodes>
        0 -1 166427 -4.4105262495577335e-03</internalNodes>
      <leafValues>
        3.8425055146217346e-01 -1.1193544417619705e-01</leafValues></_>
    <_>
      <internalNodes>
        0 -1 169078 1.8631748855113983e-02</internalNodes>
      <leafValues>
        -1.2802550196647644e-01 3.1085661053657532e-01</leafValues></_>
    <_>
      <internalNodes>
        0 -1 117198 -9.9872082471847534e-02</internalNodes>
      <leafValues>
        3.5763993859291077e-01 -1.4466990530490875e-01</leafValues></_>
    <_>
      <internalNodes>
        0 -1 223593 -3.3775367774069309e-03</internalNodes>
      <leafValues>
        4.1829028725624084e-01 -8.8572330772876740e-02</leafValues></_>
    <_>
      <internalNodes>
        0 -1 36868 2.2156932950019836e-01</internalNodes>
      <leafValues>
        -6.7253358662128448e-02 6.8004429340362549e-01</leafValues></_>
    <_>
      <internalNodes>
        0 -1 127177 -2.9182666912674904e-03</internalNodes>
      <leafValues>
        2.4568903446197510e-01 -1.7029598355293274e-01</leafValues></_>
    <_>
      <internalNodes>
        0 -1 149069 -1.2839675764553249e-04</internalNodes>
      <leafValues>
        -3.2882550358772278e-01 1.4285469055175781e-01</leafValues></_>
    <_>
      <internalNodes>
        0 -1 69739 -1.3257782906293869e-02</internalNodes>
      <leafValues>
        4.0656924247741699e-01 -1.1158215999603271e-01</leafValues></_>
    <_>
      <internalNodes>
        0 -1 157681 -1.1103521101176739e-03</internalNodes>
      <leafValues>
        4.5767721533775330e-01 -7.9026915132999420e-02</leafValues></_>
    <_>
      <internalNodes>
        0 -1 42 5.7140231365337968e-04</internalNodes>
      <leafValues>
        1.1378612369298935e-01 -3.6116123199462891e-01</leafValues></_>
    <_>
      <internalNodes>
        0 -1 30127 -5.6207054294645786e-03</internalNodes>
      <leafValues>
        3.8557076454162598e-01 -1.0341884940862656e-01</leafValues></_>
    <_>
      <internalNodes>
        0 -1 138391 2.5857384316623211e-03</internalNodes>
      <leafValues>
        -1.3667128980159760e-01 2.9721865057945251e-01</leafValues></_>
    <_>
      <internalNodes>
        0 -1 121956 -2.1696952171623707e-04</internalNodes>
      <leafValues>
        -3.3551904559135437e-01 1.2990385293960571e-01</leafValues></_>
    <_>
      <internalNodes>
        0 -1 166708 -8.4639887791126966e-04</internalNodes>
      <leafValues>
        4.1069263219833374e-01 -1.0856990516185760e-01</leafValues></_>
    <_>
      <internalNodes>
        0 -1 166706 -9.2566979583352804e-04</internalNodes>
      <leafValues>
        4.0114089846611023e-01 -1.3016445934772491e-01</leafValues></_>
    <_>
      <internalNodes>
        0 -1 163331 2.7871937490999699e-03</internalNodes>
      <leafValues>
        1.1834194511175156e-01 -3.6464196443557739e-01</leafValues></_>
    <_>
      <internalNodes>
        0 -1 88021 1.0630788747221231e-03</internalNodes>
      <leafValues>
        -1.0019474476575851e-01 4.4514414668083191e-01</leafValues></_>
    <_>
      <internalNodes>
        0 -1 96511 -4.7615036368370056e-02</internalNodes>
      <leafValues>
        -7.5278115272521973e-01 6.3827268779277802e-02</leafValues></_>
    <_>
      <internalNodes>
        0 -1 44947 2.8734530787914991e-03</internalNodes>
      <leafValues>
        -1.7092886567115784e-01 2.4422043561935425e-01</leafValues></_>
    <_>
      <internalNodes>
        0 -1 170403 -4.0619028732180595e-03</internalNodes>
      <leafValues>
        -6.0721683502197266e-01 7.1208223700523376e-02</leafValues></_>
    <_>
      <internalNodes>
        0 -1 76334 6.8053388968110085e-03</internalNodes>
      <leafValues>
        1.1974591761827469e-01 -3.3709618449211121e-01</leafValues></_>
    <_>
      <internalNodes>
        0 -1 22778 -5.9745237231254578e-03</internalNodes>
      <leafValues>
        4.1829273104667664e-01 -9.7689673304557800e-02</leafValues></_></weakClassifiers></stage8>
</opencv_storage>
